network unknown {
}
variable Age {
    type discrete [ 3 ] { 1, 2, 3 };
}
variable ChestPainType {
    type discrete [ 4 ] { ASY, ATA, NAP, TA };
}
variable Cholesterol {
    type discrete [ 6 ] { 1, 2, 3, 4, 5, 6 };
}
variable ExerciseAngina {
    type discrete [ 2 ] { N, Y };
}
variable FastingBS {
    type discrete [ 2 ] { 0, 1 };
}
variable HeartDisease {
    type discrete [ 2 ] { 0, 1 };
}
variable MaxHR {
    type discrete [ 3 ] { 1, 2, 3 };
}
variable Oldpeak {
    type discrete [ 4 ] { 1.0, 2.0, 3.0, 4.0 };
}
variable RestingBP {
    type discrete [ 2 ] { 1, 2 };
}
variable RestingECG {
    type discrete [ 3 ] { LVH, Normal, ST };
}
variable ST_Slope {
    type discrete [ 3 ] { Down, Flat, Up };
}
variable Sex {
    type discrete [ 2 ] { F, M };
}
probability ( Age | HeartDisease, Oldpeak ) {
    ( 0, 1.0 ) 0.3489583333333333, 0.4677083333333333, 0.18333333333333332;
    ( 0, 2.0 ) 0.22614379084967323, 0.473202614379085, 0.3006535947712418;
    ( 0, 3.0 ) 0.3282051282051282, 0.3282051282051282, 0.3435897435897436;
    ( 0, 4.0 ) 0.3333333333333333, 0.3333333333333333, 0.3333333333333333;
    ( 1, 1.0 ) 0.24227642276422767, 0.408130081300813, 0.34959349593495936;
    ( 1, 2.0 ) 0.17956989247311828, 0.4118279569892473, 0.4086021505376344;
    ( 1, 3.0 ) 0.2509157509157509, 0.3388278388278388, 0.4102564102564102;
    ( 1, 4.0 ) 0.3280839895013123, 0.3359580052493438, 0.3359580052493438;

}
probability ( ChestPainType | ExerciseAngina, HeartDisease ) {
    ( N, 0 ) 0.23457943925233646, 0.3280373831775701, 0.2925233644859813, 0.14485981308411214;
    ( N, 1 ) 0.38140161725067384, 0.1954177897574124, 0.22506738544474394, 0.19811320754716982;
    ( Y, 0 ) 0.2864406779661017, 0.23559322033898306, 0.2559322033898305, 0.22203389830508474;
    ( Y, 1 ) 0.5154525386313465, 0.1445916114790287, 0.19536423841059603, 0.1445916114790287;

}
probability ( Cholesterol | FastingBS, HeartDisease ) {
    ( 0, 0 ) 0.1111111111111111, 0.1935286935286935, 0.40415140415140416, 0.13308913308913306, 0.07997557997557997, 0.07814407814407814;
    ( 0, 1 ) 0.217037037037037, 0.15037037037037032, 0.3059259259259259, 0.137037037037037, 0.09703703703703702, 0.09259259259259257;
    ( 1, 0 ) 0.15023474178403756, 0.17136150234741784, 0.22065727699530516, 0.1572769953051643, 0.15375586854460094, 0.14671361502347416;
    ( 1, 1 ) 0.30392156862745096, 0.13279857397504455, 0.21033868092691618, 0.13012477718360071, 0.11140819964349376, 0.11140819964349376;

}
probability ( ExerciseAngina | HeartDisease, Oldpeak ) {
    ( 0, 1.0 ) 0.7609375, 0.2390625;
    ( 0, 2.0 ) 0.6372549019607843, 0.3627450980392157;
    ( 0, 3.0 ) 0.5115384615384615, 0.48846153846153845;
    ( 0, 4.0 ) 0.5, 0.5;
    ( 1, 1.0 ) 0.5390243902439025, 0.4609756097560976;
    ( 1, 2.0 ) 0.3758064516129032, 0.6241935483870967;
    ( 1, 3.0 ) 0.4423076923076923, 0.5576923076923077;
    ( 1, 4.0 ) 0.5, 0.5;

}
probability ( FastingBS | ExerciseAngina, HeartDisease ) {
    ( N, 0 ) 0.7102803738317757, 0.2897196261682243;
    ( N, 1 ) 0.49326145552560646, 0.5067385444743935;
    ( Y, 0 ) 0.5627118644067797, 0.43728813559322033;
    ( Y, 1 ) 0.5894039735099338, 0.4105960264900662;

}
probability ( HeartDisease | Oldpeak, ST_Slope ) {
    ( 1.0, Down ) 0.4942084942084942, 0.5057915057915058;
    ( 1.0, Flat ) 0.33710407239819007, 0.6628959276018099;
    ( 1.0, Up ) 0.7814645308924485, 0.2185354691075515;
    ( 2.0, Down ) 0.459214501510574, 0.540785498489426;
    ( 2.0, Flat ) 0.3521634615384615, 0.6478365384615384;
    ( 2.0, Up ) 0.6015037593984962, 0.39849624060150374;
    ( 3.0, Down ) 0.4364820846905537, 0.5635179153094463;
    ( 3.0, Flat ) 0.36592178770949724, 0.6340782122905028;
    ( 3.0, Up ) 0.4612546125461255, 0.5387453874538746;
    ( 4.0, Down ) 0.48828125, 0.51171875;
    ( 4.0, Flat ) 0.5, 0.5;
    ( 4.0, Up ) 0.5, 0.5;

}
probability ( MaxHR | Age, HeartDisease ) {
    ( 1, 0 ) 0.24266316250547523, 0.4161191414805081, 0.34121769601401664;
    ( 1, 1 ) 0.31949250288350634, 0.3869665513264129, 0.2935409457900807;
    ( 2, 0 ) 0.22713032581453638, 0.5457393483709273, 0.22713032581453638;
    ( 2, 1 ) 0.3724040830693418, 0.42625835973248855, 0.20133755719816968;
    ( 3, 0 ) 0.32280701754385965, 0.4175438596491228, 0.2596491228070175;
    ( 3, 1 ) 0.39457937346004934, 0.42625835973248855, 0.1791622668074622;

}
probability ( Oldpeak ) {
    table 0.3174123337363966, 0.34159613059250304, 0.18863361547763, 0.1523579201934704 ;
}
probability ( RestingBP | Cholesterol ) {
    ( 1 ) 0.2997881355932204, 0.7002118644067797;
    ( 2 ) 0.3104294478527608, 0.6895705521472393;
    ( 3 ) 0.1847898599066044, 0.8152101400933957;
    ( 4 ) 0.3704245973645681, 0.629575402635432;
    ( 5 ) 0.4826254826254826, 0.5173745173745173;
    ( 6 ) 0.4970178926441352, 0.5029821073558648;

}
probability ( RestingECG | Cholesterol ) {
    ( 1 ) 0.20833333333333337, 0.4752824858757062, 0.3163841807909605;
    ( 2 ) 0.27811860940695293, 0.443762781186094, 0.27811860940695293;
    ( 3 ) 0.2973093173226595, 0.4874360684901045, 0.21525461418723596;
    ( 4 ) 0.32747681795998046, 0.38457784285017077, 0.2879453391898487;
    ( 5 ) 0.3391248391248391, 0.3391248391248391, 0.3217503217503217;
    ( 6 ) 0.3373094764744864, 0.33134526176275675, 0.33134526176275675;

}
probability ( ST_Slope | Oldpeak ) {
    ( 1.0 ) 0.16444444444444445, 0.2806349206349206, 0.5549206349206349;
    ( 2.0 ) 0.19528023598820057, 0.49085545722713864, 0.3138643067846607;
    ( 3.0 ) 0.327991452991453, 0.38247863247863245, 0.2895299145299145;
    ( 4.0 ) 0.3386243386243386, 0.33068783068783064, 0.33068783068783064;

}
probability ( Sex | Cholesterol, HeartDisease ) {
    ( 1, 0 ) 0.4129032258064516, 0.5870967741935484;
    ( 1, 1 ) 0.2444794952681388, 0.7555205047318613;
    ( 2, 0 ) 0.41900647948164144, 0.5809935205183585;
    ( 2, 1 ) 0.37215909090909094, 0.6278409090909091;
    ( 3, 0 ) 0.4047058823529412, 0.5952941176470589;
    ( 3, 1 ) 0.24345146379044685, 0.7565485362095532;
    ( 4, 0 ) 0.5170454545454546, 0.48295454545454547;
    ( 4, 1 ) 0.43202416918429004, 0.56797583081571;
    ( 5, 0 ) 0.5, 0.5;
    ( 5, 1 ) 0.51171875, 0.48828125;
    ( 6, 0 ) 0.5059288537549407, 0.49407114624505927;
    ( 6, 1 ) 0.5, 0.5;

}
