network unknown {
}
variable Age {
    type discrete [ 3 ] { 1, 2, 3 };
}
variable ChestPainType {
    type discrete [ 4 ] { ASY, ATA, NAP, TA };
}
variable Cholesterol {
    type discrete [ 6 ] { 1, 2, 3, 4, 5, 6 };
}
variable ExerciseAngina {
    type discrete [ 2 ] { N, Y };
}
variable FastingBS {
    type discrete [ 2 ] { 0, 1 };
}
variable HeartDisease {
    type discrete [ 2 ] { 0, 1 };
}
variable MaxHR {
    type discrete [ 3 ] { 1, 2, 3 };
}
variable Oldpeak {
    type discrete [ 4 ] { 1.0, 2.0, 3.0, 4.0 };
}
variable RestingBP {
    type discrete [ 2 ] { 1, 2 };
}
variable RestingECG {
    type discrete [ 3 ] { LVH, Normal, ST };
}
variable ST_Slope {
    type discrete [ 3 ] { Down, Flat, Up };
}
variable Sex {
    type discrete [ 2 ] { F, M };
}
probability ( Age | HeartDisease, MaxHR ) {
    ( 0, 1 ) 0.2847109670448406, 0.37709346299297675, 0.3381955699621826;
    ( 0, 2 ) 0.27275312855517636, 0.4826507394766781, 0.24459613196814564;
    ( 0, 3 ) 0.3825136612021858, 0.36462990561351216, 0.252856433184302;
    ( 1, 1 ) 0.19941456275155506, 0.38382729601170873, 0.41675814123673616;
    ( 1, 2 ) 0.20573408947700067, 0.41556395715185884, 0.37870195337114054;
    ( 1, 3 ) 0.32958098811757347, 0.35209505941213254, 0.31832395247029394;

}
probability ( ChestPainType | ExerciseAngina, HeartDisease ) {
    ( N, 0 ) 0.23904761904761904, 0.3171428571428571, 0.2923809523809524, 0.15142857142857144;
    ( N, 1 ) 0.4012987012987013, 0.18571428571428572, 0.22467532467532467, 0.18831168831168832;
    ( Y, 0 ) 0.2864406779661017, 0.23220338983050848, 0.2593220338983051, 0.22203389830508474;
    ( Y, 1 ) 0.5244988864142539, 0.14587973273942093, 0.18374164810690424, 0.14587973273942093;

}
probability ( Cholesterol | FastingBS, HeartDisease ) {
    ( 0, 0 ) 0.10237203495630462, 0.19975031210986266, 0.3926342072409488, 0.14357053682896379, 0.08177278401997502, 0.07990012484394507;
    ( 0, 1 ) 0.21953010279001464, 0.1490455212922173, 0.30763582966226133, 0.13803230543318648, 0.09397944199706312, 0.09177679882525695;
    ( 1, 0 ) 0.14918414918414918, 0.17365967365967366, 0.22610722610722608, 0.15268065268065267, 0.15268065268065267, 0.14568764568764567;
    ( 1, 1 ) 0.31228070175438594, 0.13333333333333333, 0.2070175438596491, 0.12807017543859647, 0.10964912280701754, 0.10964912280701754;

}
probability ( ExerciseAngina | HeartDisease, Oldpeak ) {
    ( 0, 1.0 ) 0.7523961661341853, 0.2476038338658147;
    ( 0, 2.0 ) 0.6365461847389559, 0.3634538152610442;
    ( 0, 3.0 ) 0.5150375939849624, 0.4849624060150376;
    ( 0, 4.0 ) 0.5, 0.5;
    ( 1, 1.0 ) 0.5542452830188679, 0.44575471698113206;
    ( 1, 2.0 ) 0.3958333333333333, 0.6041666666666666;
    ( 1, 3.0 ) 0.4368131868131868, 0.5631868131868132;
    ( 1, 4.0 ) 0.50390625, 0.49609375;

}
probability ( FastingBS | HeartDisease, RestingECG ) {
    ( 0, LVH ) 0.586987270155587, 0.41301272984441306;
    ( 0, Normal ) 0.729827742520399, 0.2701722574796011;
    ( 0, ST ) 0.5876923076923077, 0.4123076923076923;
    ( 1, LVH ) 0.5861148197596796, 0.41388518024032045;
    ( 1, Normal ) 0.5564356435643565, 0.44356435643564357;
    ( 1, ST ) 0.4858681022880215, 0.5141318977119784;

}
probability ( HeartDisease | ST_Slope ) {
    ( Down ) 0.4664371772805508, 0.5335628227194492;
    ( Flat ) 0.36203208556149735, 0.6379679144385026;
    ( Up ) 0.6430051813471502, 0.35699481865284977;

}
probability ( MaxHR | ExerciseAngina, HeartDisease ) {
    ( N, 0 ) 0.21206349206349207, 0.5282539682539682, 0.2596825396825396;
    ( N, 1 ) 0.3359307359307359, 0.42424242424242425, 0.23982683982683986;
    ( Y, 0 ) 0.319774011299435, 0.38418079096045193, 0.29604519774011295;
    ( Y, 1 ) 0.3882702301410542, 0.4216778025241277, 0.19005196733481813;

}
probability ( Oldpeak | HeartDisease, ST_Slope ) {
    ( 0, Down ) 0.23616236162361623, 0.28044280442804426, 0.25276752767527677, 0.23062730627306274;
    ( 0, Flat ) 0.20679468242245203, 0.41063515509601184, 0.1979320531757755, 0.18463810930576072;
    ( 0, Up ) 0.5406929895245769, 0.2554391619661563, 0.1031426269137792, 0.1007252215954875;
    ( 1, Down ) 0.2161290322580645, 0.2838709677419355, 0.2838709677419355, 0.2161290322580645;
    ( 1, Flat ) 0.2606873428331936, 0.4392288348700754, 0.19530595138306786, 0.10477787091366303;
    ( 1, Up ) 0.2772133526850508, 0.34252539912917274, 0.19883889695210452, 0.181422351233672;

}
probability ( RestingBP | Cholesterol ) {
    ( 1 ) 0.2988384371700106, 0.7011615628299894;
    ( 2 ) 0.30703883495145634, 0.6929611650485438;
    ( 3 ) 0.18335588633288227, 0.8166441136671178;
    ( 4 ) 0.3640287769784173, 0.6359712230215827;
    ( 5 ) 0.4854368932038835, 0.5145631067961165;
    ( 6 ) 0.4970178926441352, 0.5029821073558648;

}
probability ( RestingECG | Age ) {
    ( 1 ) 0.28284350665661895, 0.4343129866867621, 0.28284350665661895;
    ( 2 ) 0.2823432343234324, 0.465016501650165, 0.25264026402640266;
    ( 3 ) 0.3159958720330237, 0.3698658410732714, 0.3141382868937048;

}
probability ( ST_Slope ) {
    table 0.2341797662232971, 0.3768641676743249, 0.3889560661023781 ;
}
probability ( Sex | HeartDisease ) {
    ( 0 ) 0.4378048780487805, 0.5621951219512196;
    ( 1 ) 0.3381294964028777, 0.6618705035971223;

}
