network unknown {
}
variable Age {
    type discrete [ 3 ] { 1, 2, 3 };
}
variable ChestPainType {
    type discrete [ 4 ] { ASY, ATA, NAP, TA };
}
variable Cholesterol {
    type discrete [ 6 ] { 1, 2, 3, 4, 5, 6 };
}
variable ExerciseAngina {
    type discrete [ 2 ] { N, Y };
}
variable FastingBS {
    type discrete [ 2 ] { 0, 1 };
}
variable HeartDisease {
    type discrete [ 2 ] { 0, 1 };
}
variable MaxHR {
    type discrete [ 3 ] { 1, 2, 3 };
}
variable Oldpeak {
    type discrete [ 4 ] { 1.0, 2.0, 3.0, 4.0 };
}
variable RestingBP {
    type discrete [ 2 ] { 1, 2 };
}
variable RestingECG {
    type discrete [ 3 ] { LVH, Normal, ST };
}
variable ST_Slope {
    type discrete [ 3 ] { Down, Flat, Up };
}
variable Sex {
    type discrete [ 2 ] { F, M };
}
probability ( Age | HeartDisease, MaxHR ) {
    ( 0, 1 ) 0.28474399164054337, 0.3881922675026123, 0.3270637408568443;
    ( 0, 2 ) 0.26538908246225323, 0.49796747967479676, 0.23664343786295008;
    ( 0, 3 ) 0.39509803921568626, 0.3465686274509804, 0.2583333333333333;
    ( 1, 1 ) 0.2014042867701404, 0.39763488543976344, 0.40096082779009606;
    ( 1, 2 ) 0.21363493559535032, 0.41156142004398366, 0.37480364436066604;
    ( 1, 3 ) 0.32958098811757347, 0.35209505941213254, 0.31832395247029394;

}
probability ( ChestPainType ) {
    table 0.35368802902055624, 0.22914147521160821, 0.24486094316807738, 0.17230955259975816 ;
}
probability ( Cholesterol | FastingBS, HeartDisease ) {
    ( 0, 0 ) 0.11193111931119311, 0.20233702337023368, 0.3979089790897909, 0.1303813038130381, 0.07872078720787208, 0.07872078720787208;
    ( 0, 1 ) 0.20943952802359878, 0.16076696165191737, 0.3045722713864306, 0.13864306784660765, 0.09439528023598819, 0.09218289085545721;
    ( 1, 0 ) 0.15238095238095237, 0.16666666666666666, 0.21666666666666665, 0.1595238095238095, 0.15595238095238095, 0.1488095238095238;
    ( 1, 1 ) 0.29912280701754385, 0.1307017543859649, 0.22280701754385962, 0.12807017543859647, 0.10964912280701754, 0.10964912280701754;

}
probability ( ExerciseAngina | HeartDisease, Oldpeak ) {
    ( 0, 1.0 ) 0.7616822429906542, 0.2383177570093458;
    ( 0, 2.0 ) 0.6265306122448979, 0.373469387755102;
    ( 0, 3.0 ) 0.5229007633587787, 0.4770992366412214;
    ( 0, 4.0 ) 0.5, 0.5;
    ( 1, 1.0 ) 0.5422535211267606, 0.45774647887323944;
    ( 1, 2.0 ) 0.37745098039215685, 0.6225490196078431;
    ( 1, 3.0 ) 0.44054054054054054, 0.5594594594594594;
    ( 1, 4.0 ) 0.50390625, 0.49609375;

}
probability ( FastingBS | HeartDisease, Oldpeak ) {
    ( 0, 1.0 ) 0.7710280373831776, 0.22897196261682243;
    ( 0, 2.0 ) 0.6795918367346939, 0.32040816326530613;
    ( 0, 3.0 ) 0.5, 0.5;
    ( 0, 4.0 ) 0.5, 0.5;
    ( 1, 1.0 ) 0.5328638497652582, 0.4671361502347418;
    ( 1, 2.0 ) 0.5375816993464052, 0.4624183006535948;
    ( 1, 3.0 ) 0.5864864864864865, 0.4135135135135135;
    ( 1, 4.0 ) 0.51171875, 0.48828125;

}
probability ( HeartDisease | ChestPainType ) {
    ( ASY ) 0.35213675213675216, 0.6478632478632479;
    ( ATA ) 0.633245382585752, 0.36675461741424803;
    ( NAP ) 0.5703703703703704, 0.42962962962962964;
    ( TA ) 0.5087719298245614, 0.49122807017543857;

}
probability ( MaxHR | ExerciseAngina, HeartDisease ) {
    ( N, 0 ) 0.22558286074354125, 0.5091367359798361, 0.2652804032766225;
    ( N, 1 ) 0.32449160035366936, 0.4279398762157383, 0.2475685234305924;
    ( Y, 0 ) 0.3185437997724687, 0.3868031854379977, 0.29465301478953354;
    ( Y, 1 ) 0.39194139194139194, 0.4227106227106227, 0.18534798534798536;

}
probability ( Oldpeak | HeartDisease, ST_Slope ) {
    ( 0, Down ) 0.23747680890538034, 0.2820037105751391, 0.24860853432282004, 0.23191094619666047;
    ( 0, Flat ) 0.21007194244604319, 0.4215827338129497, 0.18848920863309354, 0.1798561151079137;
    ( 0, Up ) 0.5592532467532467, 0.23538961038961034, 0.10389610389610389, 0.10146103896103895;
    ( 1, Down ) 0.21231766612641814, 0.29497568881685576, 0.2755267423014587, 0.2171799027552674;
    ( 1, Flat ) 0.2625418060200668, 0.4331103678929765, 0.19983277591973242, 0.10451505016722407;
    ( 1, Up ) 0.2840409956076135, 0.3191800878477306, 0.21376281112737924, 0.18301610541727675;

}
probability ( RestingBP | Cholesterol ) {
    ( 1 ) 0.3058823529411765, 0.6941176470588235;
    ( 2 ) 0.30622009569377995, 0.6937799043062202;
    ( 3 ) 0.18315508021390375, 0.8168449197860963;
    ( 4 ) 0.37205882352941183, 0.6279411764705882;
    ( 5 ) 0.48828125, 0.51171875;
    ( 6 ) 0.4970178926441352, 0.5029821073558648;

}
probability ( RestingECG | Cholesterol ) {
    ( 1 ) 0.21033868092691624, 0.47985739750445633, 0.3098039215686275;
    ( 2 ) 0.2818979266347687, 0.4433811802232855, 0.27472089314194575;
    ( 3 ) 0.30592691622103385, 0.4743761140819964, 0.21969696969696972;
    ( 4 ) 0.32009803921568625, 0.3818627450980392, 0.2980392156862745;
    ( 5 ) 0.3372395833333333, 0.3372395833333333, 0.3255208333333333;
    ( 6 ) 0.3373094764744864, 0.33134526176275675, 0.33134526176275675;

}
probability ( ST_Slope | HeartDisease ) {
    ( 0 ) 0.21857258718572586, 0.28183292781832925, 0.4995944849959448;
    ( 1 ) 0.24719551282051283, 0.4791666666666667, 0.27363782051282054;

}
probability ( Sex | ExerciseAngina, HeartDisease ) {
    ( N, 0 ) 0.42911153119092627, 0.5708884688090737;
    ( N, 1 ) 0.3740053050397878, 0.6259946949602122;
    ( Y, 0 ) 0.45733788395904434, 0.5426621160409556;
    ( Y, 1 ) 0.3054945054945055, 0.6945054945054945;

}
